<?xml version="1.0"?>
<opencv_storage>
<cascade>
  <stageType>BOOST</stageType>
  <featureType>HAAR</featureType>
  <height>20</height>
  <width>20</width>
  <stageParams>
    <boostType>GAB</boostType>
    <minHitRate>9.9500000476837158e-01</minHitRate>
    <maxFalseAlarm>5.0000000000000000e-01</maxFalseAlarm>
    <weightTrimRate>9.4999999999999996e-01</weightTrimRate>
    <maxDepth>1</maxDepth>
    <maxWeakCount>100</maxWeakCount></stageParams>
  <featureParams>
    <maxCatCount>0</maxCatCount>
    <featSize>1</featSize>
    <mode>BASIC</mode></featureParams>
  <stageNum>4</stageNum>
  <stages>
    <!-- stage 0 -->
    <_>
      <maxWeakCount>9</maxWeakCount>
      <stageThreshold>-9.5053452253341675e-01</stageThreshold>
      <weakClassifiers>
        <_>
          <internalNodes>
            0 -1 38 1.8283195793628693e-02</internalNodes>
          <leafValues>
            -2.3055934906005859e-01 9.2173188924789429e-01</leafValues></_>
        <_>
          <internalNodes>
            0 -1 9 2.7471277862787247e-02</internalNodes>
          <leafValues>
            -2.0905856788158417e-01 9.2903876304626465e-01</leafValues></_>
        <_>
          <internalNodes>
            0 -1 31 -6.2610637396574020e-03</internalNodes>
          <leafValues>
            9.0966045856475830e-01 -2.2989559173583984e-01</leafValues></_>
        <_>
          <internalNodes>
            0 -1 23 -4.7422549687325954e-03</internalNodes>
          <leafValues>
            9.2067450284957886e-01 -2.8454008698463440e-01</leafValues></_>
        <_>
          <internalNodes>
            0 -1 18 -3.3240488264709711e-03</internalNodes>
          <leafValues>
            8.3738547563552856e-01 -1.8222652375698090e-01</leafValues></_>
        <_>
          <internalNodes>
            0 -1 37 -6.0610473155975342e-03</internalNodes>
          <leafValues>
            8.7461823225021362e-01 -2.3300023376941681e-01</leafValues></_>
        <_>
          <internalNodes>
            0 -1 33 -5.3240740671753883e-03</internalNodes>
          <leafValues>
            8.0019140243530273e-01 -2.1191173791885376e-01</leafValues></_>
        <_>
          <internalNodes>
            0 -1 12 -5.2904337644577026e-03</internalNodes>
          <leafValues>
            8.8403743505477905e-01 -1.6332489252090454e-01</leafValues></_>
        <_>
          <internalNodes>
            0 -1 19 -4.3434770777821541e-03</internalNodes>
          <leafValues>
            8.0485004186630249e-01 -2.1812061965465546e-01</leafValues></_></weakClassifiers></_>
    <!-- stage 1 -->
    <_>
      <maxWeakCount>15</maxWeakCount>
      <stageThreshold>-1.7480188608169556e+00</stageThreshold>
      <weakClassifiers>
        <_>
          <internalNodes>
            0 -1 35 4.6717762947082520e-02</internalNodes>
          <leafValues>
            -1.3295269012451172e-01 9.7679322957992554e-01</leafValues></_>
        <_>
          <internalNodes>
            0 -1 0 1.8882663920521736e-02</internalNodes>
          <leafValues>
            -3.0605658888816833e-01 6.3580501079559326e-01</leafValues></_>
        <_>
          <internalNodes>
            0 -1 40 -8.3621423691511154e-03</internalNodes>
          <leafValues>
            8.4558749198913574e-01 -1.9727793335914612e-01</leafValues></_>
        <_>
          <internalNodes>
            0 -1 26 -9.6003785729408264e-03</internalNodes>
          <leafValues>
            7.6923173666000366e-01 -2.6860383152961731e-01</leafValues></_>
        <_>
          <internalNodes>
            0 -1 34 -5.9675946831703186e-03</internalNodes>
          <leafValues>
            8.3527207374572754e-01 -1.6434690356254578e-01</leafValues></_>
        <_>
          <internalNodes>
            0 -1 34 3.7714028730988503e-03</internalNodes>
          <leafValues>
            -2.0004747807979584e-01 7.6975184679031372e-01</leafValues></_>
        <_>
          <internalNodes>
            0 -1 24 -4.8416089266538620e-03</internalNodes>
          <leafValues>
            5.8153212070465088e-01 -1.9652982056140900e-01</leafValues></_>
        <_>
          <internalNodes>
            0 -1 15 7.9160705208778381e-03</internalNodes>
          <leafValues>
            -1.4251160621643066e-01 7.2875201702117920e-01</leafValues></_>
        <_>
          <internalNodes>
            0 -1 16 -4.1430774144828320e-03</internalNodes>
          <leafValues>
            6.1233258247375488e-01 -2.0368324220180511e-01</leafValues></_>
        <_>
          <internalNodes>
            0 -1 21 1.6223974525928497e-03</internalNodes>
          <leafValues>
            -1.3144020736217499e-01 7.0191192626953125e-01</leafValues></_>
        <_>
          <internalNodes>
            0 -1 45 -3.1226910650730133e-03</internalNodes>
          <leafValues>
            4.9520251154899597e-01 -1.8502300977706909e-01</leafValues></_>
        <_>
          <internalNodes>
            0 -1 39 5.3587090224027634e-03</internalNodes>
          <leafValues>
            -1.5678203105926514e-01 6.1258417367935181e-01</leafValues></_>
        <_>
          <internalNodes>
            0 -1 28 5.5349920876324177e-03</internalNodes>
          <leafValues>
            -1.4969141781330109e-01 6.8021625280380249e-01</leafValues></_>
        <_>
          <internalNodes>
            0 -1 20 3.1803520396351814e-03</internalNodes>
          <leafValues>
            -9.5024012029170990e-02 7.6494663953781128e-01</leafValues></_>
        <_>
          <internalNodes>
            0 -1 8 -2.8511635027825832e-03</internalNodes>
          <leafValues>
            8.3619439601898193e-01 -8.9311763644218445e-02</leafValues></_></weakClassifiers></_>
    <!-- stage 2 -->
    <_>
      <maxWeakCount>19</maxWeakCount>
      <stageThreshold>-1.4552595615386963e+00</stageThreshold>
      <weakClassifiers>
        <_>
          <internalNodes>
            0 -1 6 5.4752200841903687e-02</internalNodes>
          <leafValues>
            -3.0160772800445557e-01 5.7940381765365601e-01</leafValues></_>
        <_>
          <internalNodes>
            0 -1 42 -5.6055327877402306e-03</internalNodes>
          <leafValues>
            8.2909214496612549e-01 -1.9520461559295654e-01</leafValues></_>
        <_>
          <internalNodes>
            0 -1 32 -1.1827668175101280e-02</internalNodes>
          <leafValues>
            7.6386600732803345e-01 -1.8929089605808258e-01</leafValues></_>
        <_>
          <internalNodes>
            0 -1 30 -8.9764008298516273e-03</internalNodes>
          <leafValues>
            7.9910415410995483e-01 -1.9136232137680054e-01</leafValues></_>
        <_>
          <internalNodes>
            0 -1 22 -5.4915412329137325e-03</internalNodes>
          <leafValues>
            8.3272069692611694e-01 -1.6229434311389923e-01</leafValues></_>
        <_>
          <internalNodes>
            0 -1 29 3.4794509410858154e-03</internalNodes>
          <leafValues>
            -1.6030555963516235e-01 6.7442202568054199e-01</leafValues></_>
        <_>
          <internalNodes>
            0 -1 17 -4.6006077900528908e-03</internalNodes>
          <leafValues>
            7.1634948253631592e-01 -1.4721755683422089e-01</leafValues></_>
        <_>
          <internalNodes>
            0 -1 41 1.0805670171976089e-02</internalNodes>
          <leafValues>
            -1.1939937621355057e-01 7.7518850564956665e-01</leafValues></_>
        <_>
          <internalNodes>
            0 -1 11 -1.2712004827335477e-03</internalNodes>
          <leafValues>
            5.8201956748962402e-01 -1.3362860679626465e-01</leafValues></_>
        <_>
          <internalNodes>
            0 -1 13 -9.5160357886925340e-04</internalNodes>
          <leafValues>
            -5.0912237167358398e-01 1.9102838635444641e-01</leafValues></_>
        <_>
          <internalNodes>
            0 -1 10 -1.1814120225608349e-03</internalNodes>
          <leafValues>
            4.3193271756172180e-01 -2.1313054859638214e-01</leafValues></_>
        <_>
          <internalNodes>
            0 -1 25 2.0819553174078465e-03</internalNodes>
          <leafValues>
            -9.1390356421470642e-02 6.9017839431762695e-01</leafValues></_>
        <_>
          <internalNodes>
            0 -1 14 1.2542132288217545e-02</internalNodes>
          <leafValues>
            -2.4450665712356567e-01 3.1490072607994080e-01</leafValues></_>
        <_>
          <internalNodes>
            0 -1 46 -2.4687368422746658e-03</internalNodes>
          <leafValues>
            -5.3123128414154053e-01 1.2388654798269272e-01</leafValues></_>
        <_>
          <internalNodes>
            0 -1 3 1.7392726149410009e-03</internalNodes>
          <leafValues>
            -1.1450686305761337e-01 6.3564646244049072e-01</leafValues></_>
        <_>
          <internalNodes>
            0 -1 7 1.1450465768575668e-02</internalNodes>
          <leafValues>
            1.6200219094753265e-01 -5.0204563140869141e-01</leafValues></_>
        <_>
          <internalNodes>
            0 -1 5 1.3887133682146668e-03</internalNodes>
          <leafValues>
            -1.4330348372459412e-01 5.0715708732604980e-01</leafValues></_>
        <_>
          <internalNodes>
            0 -1 44 -6.3192406669259071e-03</internalNodes>
          <leafValues>
            5.0215572118759155e-01 -1.3311824202537537e-01</leafValues></_>
        <_>
          <internalNodes>
            0 -1 36 -2.5206811260432005e-03</internalNodes>
          <leafValues>
            2.9369655251502991e-01 -2.4618111550807953e-01</leafValues></_></weakClassifiers></_>
    <!-- stage 3 -->
    <_>
      <maxWeakCount>6</maxWeakCount>
      <stageThreshold>-1.1720045804977417e+00</stageThreshold>
      <weakClassifiers>
        <_>
          <internalNodes>
            0 -1 2 -6.3688047230243683e-02</internalNodes>
          <leafValues>
            -7.7067667245864868e-01 6.0787671804428101e-01</leafValues></_>
        <_>
          <internalNodes>
            0 -1 4 -2.2287029772996902e-02</internalNodes>
          <leafValues>
            9.3036419153213501e-01 -3.0080190300941467e-01</leafValues></_>
        <_>
          <internalNodes>
            0 -1 38 3.9134122431278229e-02</internalNodes>
          <leafValues>
            -1.8532899022102356e-01 9.3957513570785522e-01</leafValues></_>
        <_>
          <internalNodes>
            0 -1 1 -4.8790983855724335e-03</internalNodes>
          <leafValues>
            -4.3529647588729858e-01 4.9193376302719116e-01</leafValues></_>
        <_>
          <internalNodes>
            0 -1 27 -6.7196376621723175e-03</internalNodes>
          <leafValues>
            9.1021889448165894e-01 -2.3678264021873474e-01</leafValues></_>
        <_>
          <internalNodes>
            0 -1 43 -3.8983300328254700e-03</internalNodes>
          <leafValues>
            8.1277376413345337e-01 -1.7034812271595001e-01</leafValues></_></weakClassifiers></_></stages>
  <features>
    <_>
      <rects>
        <_>
          0 11 8 5 -1.</_>
        <_>
          4 11 4 5 2.</_></rects>
      <tilted>0</tilted></_>
    <_>
      <rects>
        <_>
          1 4 6 3 -1.</_>
        <_>
          4 4 3 3 2.</_></rects>
      <tilted>0</tilted></_>
    <_>
      <rects>
        <_>
          1 7 12 8 -1.</_>
        <_>
          7 7 6 8 2.</_></rects>
      <tilted>0</tilted></_>
    <_>
      <rects>
        <_>
          3 11 2 2 -1.</_>
        <_>
          3 11 1 1 2.</_>
        <_>
          4 12 1 1 2.</_></rects>
      <tilted>0</tilted></_>
    <_>
      <rects>
        <_>
          4 4 6 9 -1.</_>
        <_>
          6 4 2 9 3.</_></rects>
      <tilted>0</tilted></_>
    <_>
      <rects>
        <_>
          4 11 2 2 -1.</_>
        <_>
          4 11 1 1 2.</_>
        <_>
          5 12 1 1 2.</_></rects>
      <tilted>0</tilted></_>
    <_>
      <rects>
        <_>
          6 8 9 12 -1.</_>
        <_>
          6 12 9 4 3.</_></rects>
      <tilted>0</tilted></_>
    <_>
      <rects>
        <_>
          6 11 6 3 -1.</_>
        <_>
          9 11 3 3 2.</_></rects>
      <tilted>0</tilted></_>
    <_>
      <rects>
        <_>
          6 14 3 1 -1.</_>
        <_>
          7 14 1 1 3.</_></rects>
      <tilted>0</tilted></_>
    <_>
      <rects>
        <_>
          7 4 6 9 -1.</_>
        <_>
          9 4 2 9 3.</_></rects>
      <tilted>0</tilted></_>
    <_>
      <rects>
        <_>
          7 11 1 3 -1.</_>
        <_>
          7 12 1 1 3.</_></rects>
      <tilted>0</tilted></_>
    <_>
      <rects>
        <_>
          7 11 2 2 -1.</_>
        <_>
          7 11 1 1 2.</_>
        <_>
          8 12 1 1 2.</_></rects>
      <tilted>0</tilted></_>
    <_>
      <rects>
        <_>
          7 11 3 4 -1.</_>
        <_>
          8 11 1 4 3.</_></rects>
      <tilted>0</tilted></_>
    <_>
      <rects>
        <_>
          7 19 3 1 -1.</_>
        <_>
          8 19 1 1 3.</_></rects>
      <tilted>0</tilted></_>
    <_>
      <rects>
        <_>
          8 2 5 9 -1.</_>
        <_>
          8 5 5 3 3.</_></rects>
      <tilted>0</tilted></_>
    <_>
      <rects>
        <_>
          8 4 3 7 -1.</_>
        <_>
          9 4 1 7 3.</_></rects>
      <tilted>0</tilted></_>
    <_>
      <rects>
        <_>
          8 5 3 5 -1.</_>
        <_>
          9 5 1 5 3.</_></rects>
      <tilted>0</tilted></_>
    <_>
      <rects>
        <_>
          8 12 3 2 -1.</_>
        <_>
          9 12 1 2 3.</_></rects>
      <tilted>0</tilted></_>
    <_>
      <rects>
        <_>
          8 12 3 3 -1.</_>
        <_>
          9 12 1 3 3.</_></rects>
      <tilted>0</tilted></_>
    <_>
      <rects>
        <_>
          9 5 3 5 -1.</_>
        <_>
          10 5 1 5 3.</_></rects>
      <tilted>0</tilted></_>
    <_>
      <rects>
        <_>
          9 12 3 1 -1.</_>
        <_>
          10 12 1 1 3.</_></rects>
      <tilted>0</tilted></_>
    <_>
      <rects>
        <_>
          9 12 2 2 -1.</_>
        <_>
          9 12 1 1 2.</_>
        <_>
          10 13 1 1 2.</_></rects>
      <tilted>0</tilted></_>
    <_>
      <rects>
        <_>
          9 12 3 2 -1.</_>
        <_>
          10 12 1 2 3.</_></rects>
      <tilted>0</tilted></_>
    <_>
      <rects>
        <_>
          9 12 3 4 -1.</_>
        <_>
          10 12 1 4 3.</_></rects>
      <tilted>0</tilted></_>
    <_>
      <rects>
        <_>
          9 12 3 7 -1.</_>
        <_>
          10 12 1 7 3.</_></rects>
      <tilted>0</tilted></_>
    <_>
      <rects>
        <_>
          9 13 2 2 -1.</_>
        <_>
          9 13 1 1 2.</_>
        <_>
          10 14 1 1 2.</_></rects>
      <tilted>0</tilted></_>
    <_>
      <rects>
        <_>
          10 8 3 9 -1.</_>
        <_>
          11 8 1 9 3.</_></rects>
      <tilted>0</tilted></_>
    <_>
      <rects>
        <_>
          10 10 5 3 -1.</_>
        <_>
          10 11 5 1 3.</_></rects>
      <tilted>0</tilted></_>
    <_>
      <rects>
        <_>
          10 11 3 4 -1.</_>
        <_>
          11 11 1 4 3.</_></rects>
      <tilted>0</tilted></_>
    <_>
      <rects>
        <_>
          10 12 2 4 -1.</_>
        <_>
          10 12 1 2 2.</_>
        <_>
          11 14 1 2 2.</_></rects>
      <tilted>0</tilted></_>
    <_>
      <rects>
        <_>
          10 12 3 4 -1.</_>
        <_>
          11 12 1 4 3.</_></rects>
      <tilted>0</tilted></_>
    <_>
      <rects>
        <_>
          10 12 3 5 -1.</_>
        <_>
          11 12 1 5 3.</_></rects>
      <tilted>0</tilted></_>
    <_>
      <rects>
        <_>
          11 9 3 7 -1.</_>
        <_>
          12 9 1 7 3.</_></rects>
      <tilted>0</tilted></_>
    <_>
      <rects>
        <_>
          11 11 3 6 -1.</_>
        <_>
          12 11 1 6 3.</_></rects>
      <tilted>0</tilted></_>
    <_>
      <rects>
        <_>
          11 12 3 3 -1.</_>
        <_>
          12 12 1 3 3.</_></rects>
      <tilted>0</tilted></_>
    <_>
      <rects>
        <_>
          12 9 6 7 -1.</_>
        <_>
          14 9 2 7 3.</_></rects>
      <tilted>0</tilted></_>
    <_>
      <rects>
        <_>
          12 10 3 6 -1.</_>
        <_>
          13 10 1 6 3.</_></rects>
      <tilted>0</tilted></_>
    <_>
      <rects>
        <_>
          12 10 3 7 -1.</_>
        <_>
          13 10 1 7 3.</_></rects>
      <tilted>0</tilted></_>
    <_>
      <rects>
        <_>
          12 10 6 5 -1.</_>
        <_>
          14 10 2 5 3.</_></rects>
      <tilted>0</tilted></_>
    <_>
      <rects>
        <_>
          12 11 3 4 -1.</_>
        <_>
          13 11 1 4 3.</_></rects>
      <tilted>0</tilted></_>
    <_>
      <rects>
        <_>
          12 11 3 5 -1.</_>
        <_>
          13 11 1 5 3.</_></rects>
      <tilted>0</tilted></_>
    <_>
      <rects>
        <_>
          12 11 6 3 -1.</_>
        <_>
          12 12 6 1 3.</_></rects>
      <tilted>0</tilted></_>
    <_>
      <rects>
        <_>
          12 12 3 2 -1.</_>
        <_>
          13 12 1 2 3.</_></rects>
      <tilted>0</tilted></_>
    <_>
      <rects>
        <_>
          12 12 3 3 -1.</_>
        <_>
          12 13 3 1 3.</_></rects>
      <tilted>0</tilted></_>
    <_>
      <rects>
        <_>
          13 8 2 8 -1.</_>
        <_>
          13 8 1 4 2.</_>
        <_>
          14 12 1 4 2.</_></rects>
      <tilted>0</tilted></_>
    <_>
      <rects>
        <_>
          14 11 6 2 -1.</_>
        <_>
          14 11 3 1 2.</_>
        <_>
          17 12 3 1 2.</_></rects>
      <tilted>0</tilted></_>
    <_>
      <rects>
        <_>
          16 16 3 3 -1.</_>
        <_>
          17 16 1 3 3.</_></rects>
      <tilted>0</tilted></_></features></cascade>
</opencv_storage>
