<?xml version="1.0"?>
<opencv_storage>
<stage0>
  <maxWeakCount>9</maxWeakCount>
  <stageThreshold>-9.5053452253341675e-01</stageThreshold>
  <weakClassifiers>
    <_>
      <internalNodes>
        0 -1 68010 1.8283195793628693e-02</internalNodes>
      <leafValues>
        -2.3055934906005859e-01 9.2173188924789429e-01</leafValues></_>
    <_>
      <internalNodes>
        0 -1 46961 2.7471277862787247e-02</internalNodes>
      <leafValues>
        -2.0905856788158417e-01 9.2903876304626465e-01</leafValues></_>
    <_>
      <internalNodes>
        0 -1 61806 -6.2610637396574020e-03</internalNodes>
      <leafValues>
        9.0966045856475830e-01 -2.2989559173583984e-01</leafValues></_>
    <_>
      <internalNodes>
        0 -1 57968 -4.7422549687325954e-03</internalNodes>
      <leafValues>
        9.2067450284957886e-01 -2.8454008698463440e-01</leafValues></_>
    <_>
      <internalNodes>
        0 -1 53878 -3.3240488264709711e-03</internalNodes>
      <leafValues>
        8.3738547563552856e-01 -1.8222652375698090e-01</leafValues></_>
    <_>
      <internalNodes>
        0 -1 67982 -6.0610473155975342e-03</internalNodes>
      <leafValues>
        8.7461823225021362e-01 -2.3300023376941681e-01</leafValues></_>
    <_>
      <internalNodes>
        0 -1 65081 -5.3240740671753883e-03</internalNodes>
      <leafValues>
        8.0019140243530273e-01 -2.1191173791885376e-01</leafValues></_>
    <_>
      <internalNodes>
        0 -1 48997 -5.2904337644577026e-03</internalNodes>
      <leafValues>
        8.8403743505477905e-01 -1.6332489252090454e-01</leafValues></_>
    <_>
      <internalNodes>
        0 -1 56376 -4.3434770777821541e-03</internalNodes>
      <leafValues>
        8.0485004186630249e-01 -2.1812061965465546e-01</leafValues></_></weakClassifiers></stage0>
</opencv_storage>
